[[[[-0.69384291523151664,
    4.055665831797346,
    3.1925150046697199,
    -0.45355382208960865,
    -1.0164511932593847,
    -0.4489298921085923],
   [4.0568543077247297,
    2.7656412057192106,
    -2.8133099072507606,
    -1.1206131027030548,
    -1.3998914377886591,
    -1.2750242484502605],
   [2.0128967520099361,
    1.6323064730148931,
    -1.2760049303587442,
    1.6041160631963784,
    -3.7542811493687744,
    -4.1528097968282642],
   [1.7516749149358728,
    -1.614465875805986,
    -0.2324973064206608,
    1.2122505584773688,
    -1.3059389151509266,
    -0.79534408149301306]],
  [[0.6651399851763079],
   [0.056853900275496735],
   [-2.7688679808764318],
   [2.0638234361276191],
   [-3.4415146472337534],
   [0.100015344006152]]],
 [[[-0.71821320811599243,
    5.2929025246358448,
    2.913477844225298,
    -0.21664633138159217,
    -1.3608026121039756,
    -1.4388827974171403],
   [4.2627118728875386,
    3.2041490710495037,
    -2.5328270249920091,
    -1.1685474953081314,
    -1.3614312041373413,
    -1.0772506423660897],
   [1.917039563976932,
    1.704837775533437,
    -0.85269861057276963,
    1.3772418321166064,
    -4.0651246387783342,
    -4.4943571777336144],
   [1.9587313993302995,
    -1.8714978093813437,
    -0.47219185085217019,
    0.68638966363144582,
    -1.0456139100437645,
    -0.58411572103530407]],
  [[0.19222065686747331],
   [-0.10563737783701396],
   [-2.7688679808764318],
   [1.9178226828133034],
   [-3.3675512839726744],
   [0.46494285342859665]]],
 [[[-0.49364935851436176,
    3.9141610060599037,
    3.4676194430321536,
    0.43126336077324962,
    -0.99235544389711927,
    -0.8061562029114836],
   [3.9603954091714137,
    3.0790723473221027,
    -2.8482677803107692,
    -1.1909053666164575,
    -1.8192707945750723,
    -1.5153915716401571],
   [2.4438416646776022,
    1.6323064730148931,
    -1.2760049303587442,
    1.7589382398682953,
    -3.4897765083067731,
    -3.8436365211735115],
   [1.7516749149358728,
    -1.614465875805986,
    -0.62584784855362363,
    1.0104391184207167,
    -1.5383164675493102,
    -0.92786733881757055]],
  [[0.41958991574741511],
   [-0.02092509394775284],
   [-2.9147307975663863],
   [1.9178226828133034],
   [-3.4677961038271681],
   [0.56647172252852318]]],
 [[[-0.5310475018179589,
    5.2929025246358448,
    3.1712913389088655,
    -0.080329282725121576,
    -1.2964707999018921,
    -1.4388827974171403],
   [4.2097486711768068,
    3.3332613715443693,
    -2.8130648242352074,
    -1.1685474953081314,
    -1.512219068777598,
    -1.2750242484502605],
   [2.2509313463140206,
    1.6323064730148931,
    -1.3587964596818527,
    1.3937151156716117,
    -3.2329566765634308,
    -4.0467352254979359],
   [1.7516749149358728,
    -1.614465875805986,
    -0.47219185085217019,
    0.80016405407425395,
    -1.1143441779407257,
    -0.79534408149301306]],
  [[0.41958991574741511],
   [0.24467350192487802],
   [-2.7688679808764318],
   [1.9178226828133034],
   [-3.1745474795547111],
   [0.46494285342859665]]],
 [[[-0.44119661382547115,
    3.9259739468915571,
    3.4676194430321536,
    0.44804119539557841,
    -0.93319069225663731,
    -0.79270042898319981],
   [3.8325747511609092,
    3.0790723473221027,
    -2.8482677803107692,
    -1.3366628548185235,
    -1.8192707945750723,
    -1.2750242484502605],
   [2.3230119329005228,
    1.4423529732951244,
    -1.2760049303587442,
    1.5552406951127322,
    -3.335477534386396,
    -4.1240345006564585],
   [1.8893330724264175,
    -1.614465875805986,
    -0.4806635042205456,
    1.0104391184207167,
    -1.3059389151509266,
    -0.74324198178635914]],
  [[0.31103969785604457],
   [0.6264093670303279],
   [-2.7515333670982542],
   [1.9178226828133034],
   [-3.4082888024064357],
   [0.56647172252852318]]],
 [[[-0.69384291523151664,
    4.055665831797346,
    3.4676194430321536,
    0.2398322069453856,
    -0.76461652951328862,
    -0.612526899498403],
   [3.954328988000309,
    3.2009268764107235,
    -2.8955025972438295,
    -1.0741166116396037,
    -1.8192707945750723,
    -1.2750242484502605],
   [2.279279008050795,
    1.540546063509068,
    -1.2760049303587442,
    1.6111401385771982,
    -3.5521161740528422,
    -4.1240345006564585],
   [1.7516749149358728,
    -1.5570497050756316,
    -0.519571392469521,
    1.0104391184207167,
    -1.5179697428723666,
    -0.29075008206715225]],
  [[0.96473195963326763],
   [-0.11605313624025954],
   [-3.0433900103087765],
   [1.6739305528606081],
   [-2.8266508159317518],
   [0.59440899652557466]]],
 [[[-0.49364935851436176,
    4.055665831797346,
    3.4676194430321536,
    0.2398322069453856,
    -1.0217946123962447,
    -0.612526899498403],
   [4.0631791530093446,
    3.0790723473221027,
    -2.8482677803107692,
    -1.0741166116396037,
    -1.3614312041373413,
    -1.0772506423660897],
   [1.917039563976932,
    1.704837775533437,
    -0.81385637186072168,
    1.3772418321166064,
    -4.0651246387783342,
    -4.4943571777336144],
   [1.9032421408737425,
    -1.8714978093813437,
    -0.47219185085217019,
    0.67733206328743267,
    -1.39694461258254,
    -0.58411572103530407]],
  [[0.41958991574741511],
   [-0.10563737783701396],
   [-2.7688679808764318],
   [1.9178226828133034],
   [-3.3675512839726744],
   [0.46494285342859665]]],
 [[[-0.69384291523151664,
    4.055665831797346,
    3.1925150046697199,
    -0.39460344628982491,
    -1.0164511932593847,
    -0.4489298921085923],
   [4.0568543077247297,
    2.7656412057192106,
    -2.8133099072507606,
    -1.3770898323119265,
    -1.8192707945750723,
    -1.2750242484502605],
   [2.3230119329005228,
    1.6481991940180669,
    -1.2760049303587442,
    1.8050450212841183,
    -3.335477534386396,
    -3.7617910815043869],
   [1.8258581541850278,
    -1.6298564698201106,
    -0.47219185085217019,
    1.3063225652778232,
    -1.5383164675493102,
    -0.64088675090634206]],
  [[0.52380783206381254],
   [-0.11605313624025954],
   [-3.2548464593939359],
   [1.3969048637930925],
   [-2.7473191083126998],
   [0.59440899652557466]]],
 [[[-0.5718343577416154,
    5.2929025246358448,
    2.8772162600299689,
    -0.080329282725121576,
    -1.2964707999018921,
    -1.4388827974171403],
   [4.1662406729920676,
    3.3332613715443693,
    -2.8130648242352074,
    -1.1685474953081314,
    -1.512219068777598,
    -1.2750242484502605],
   [2.2509313463140206,
    1.6323064730148931,
    -1.3587964596818527,
    1.6041160631963784,
    -3.2329566765634308,
    -4.0467352254979359],
   [1.7516749149358728,
    -1.614465875805986,
    -0.47219185085217019,
    1.0104391184207167,
    -1.1143441779407257,
    -0.79534408149301306]],
  [[0.41958991574741511],
   [0.14197151995813287],
   [-2.9024734889348118],
   [1.6629536893235701],
   [-3.4415146472337534],
   [0.46494285342859665]]],
 [[[-0.44119661382547115,
    5.2929025246358448,
    2.8772162600299689,
    -0.080329282725121576,
    -1.2964707999018921,
    -1.2617104299396682],
   [4.2097486711768068,
    3.4792531958376562,
    -2.6683776120474478,
    -1.1685474953081314,
    -1.512219068777598,
    -1.2750242484502605],
   [2.2509313463140206,
    1.6323064730148931,
    -1.3587964596818527,
    1.6041160631963784,
    -3.2329566765634308,
    -4.0467352254979359],
   [1.7516749149358728,
    -1.7444983207189726,
    -0.47219185085217019,
    1.0104391184207167,
    -1.3598458639262363,
    -0.79534408149301306]],
  [[0.41958991574741511],
   [0.14197151995813287],
   [-2.7688679808764318],
   [1.9178226828133034],
   [-3.4415146472337534],
   [0.46494285342859665]]]]